<?xml version="1.0"?>
<opencv_storage>
<cascade>
  <stageType>BOOST</stageType>
  <featureType>HAAR</featureType>
  <height>20</height>
  <width>50</width>
  <stageParams>
    <boostType>GAB</boostType>
    <minHitRate>9.9500000476837158e-01</minHitRate>
    <maxFalseAlarm>5.0000000000000000e-01</maxFalseAlarm>
    <weightTrimRate>9.4999999999999996e-01</weightTrimRate>
    <maxDepth>1</maxDepth>
    <maxWeakCount>100</maxWeakCount></stageParams>
  <featureParams>
    <maxCatCount>0</maxCatCount>
    <featSize>1</featSize>
    <mode>BASIC</mode></featureParams>
  <stageNum>2</stageNum>
  <stages>
    <!-- stage 0 -->
    <_>
      <maxWeakCount>5</maxWeakCount>
      <stageThreshold>-9.9782580137252808e-01</stageThreshold>
      <weakClassifiers>
        <_>
          <internalNodes>
            0 -1 7 2.3127824068069458e-02</internalNodes>
          <leafValues>
            -7.8833693265914917e-01 6.7970204353332520e-01</leafValues></_>
        <_>
          <internalNodes>
            0 -1 2 -1.2312083505094051e-02</internalNodes>
          <leafValues>
            7.3741543292999268e-01 -6.4106017351150513e-01</leafValues></_>
        <_>
          <internalNodes>
            0 -1 4 -1.0386147536337376e-02</internalNodes>
          <leafValues>
            8.3624768257141113e-01 -4.8499324917793274e-01</leafValues></_>
        <_>
          <internalNodes>
            0 -1 9 9.3020796775817871e-03</internalNodes>
          <leafValues>
            -7.1736603975296021e-01 4.8568686842918396e-01</leafValues></_>
        <_>
          <internalNodes>
            0 -1 5 -4.7303680330514908e-03</internalNodes>
          <leafValues>
            4.3087765574455261e-01 -6.0130226612091064e-01</leafValues></_></weakClassifiers></_>
    <!-- stage 1 -->
    <_>
      <maxWeakCount>6</maxWeakCount>
      <stageThreshold>-1.1607754230499268e+00</stageThreshold>
      <weakClassifiers>
        <_>
          <internalNodes>
            0 -1 3 5.0306499004364014e-02</internalNodes>
          <leafValues>
            -6.1510789394378662e-01 7.7027028799057007e-01</leafValues></_>
        <_>
          <internalNodes>
            0 -1 8 -1.8328752368688583e-02</internalNodes>
          <leafValues>
            6.7200428247451782e-01 -5.8513027429580688e-01</leafValues></_>
        <_>
          <internalNodes>
            0 -1 1 -1.2657729908823967e-02</internalNodes>
          <leafValues>
            4.3185031414031982e-01 -6.8442946672439575e-01</leafValues></_>
        <_>
          <internalNodes>
            0 -1 6 -1.5367188025265932e-03</internalNodes>
          <leafValues>
            6.9240719079971313e-01 -4.5259407162666321e-01</leafValues></_>
        <_>
          <internalNodes>
            0 -1 0 -1.2096137553453445e-01</internalNodes>
          <leafValues>
            5.6459218263626099e-01 -5.1029467582702637e-01</leafValues></_>
        <_>
          <internalNodes>
            0 -1 10 7.0837754756212234e-03</internalNodes>
          <leafValues>
            -4.7767460346221924e-01 5.7050120830535889e-01</leafValues></_></weakClassifiers></_></stages>
  <features>
    <_>
      <rects>
        <_>
          0 11 46 9 -1.</_>
        <_>
          0 14 46 3 3.</_></rects>
      <tilted>0</tilted></_>
    <_>
      <rects>
        <_>
          0 13 16 6 -1.</_>
        <_>
          8 13 8 6 2.</_></rects>
      <tilted>0</tilted></_>
    <_>
      <rects>
        <_>
          1 13 10 7 -1.</_>
        <_>
          6 13 5 7 2.</_></rects>
      <tilted>0</tilted></_>
    <_>
      <rects>
        <_>
          7 16 28 4 -1.</_>
        <_>
          7 18 28 2 2.</_></rects>
      <tilted>0</tilted></_>
    <_>
      <rects>
        <_>
          9 10 6 4 -1.</_>
        <_>
          9 12 6 2 2.</_></rects>
      <tilted>0</tilted></_>
    <_>
      <rects>
        <_>
          10 13 12 6 -1.</_>
        <_>
          14 13 4 6 3.</_></rects>
      <tilted>0</tilted></_>
    <_>
      <rects>
        <_>
          11 13 8 2 -1.</_>
        <_>
          11 13 4 1 2.</_>
        <_>
          15 14 4 1 2.</_></rects>
      <tilted>0</tilted></_>
    <_>
      <rects>
        <_>
          14 16 21 4 -1.</_>
        <_>
          14 18 21 2 2.</_></rects>
      <tilted>0</tilted></_>
    <_>
      <rects>
        <_>
          34 9 9 6 -1.</_>
        <_>
          34 12 9 3 2.</_></rects>
      <tilted>0</tilted></_>
    <_>
      <rects>
        <_>
          34 13 16 6 -1.</_>
        <_>
          42 13 8 6 2.</_></rects>
      <tilted>0</tilted></_>
    <_>
      <rects>
        <_>
          40 15 10 4 -1.</_>
        <_>
          45 15 5 4 2.</_></rects>
      <tilted>0</tilted></_></features></cascade>
</opencv_storage>
